       33.433346      -117.74454     -0.37224388
       33.432489      -117.74478     -0.38065720
       33.431632      -117.74503     -0.37224388
       33.430775      -117.74527     -0.37224388
       33.429919      -117.74552     -0.40579700
       33.429061      -117.74576     -0.38897038
       33.428205      -117.74601     -0.39738369
       33.427348      -117.74625     -0.39738369
       33.426491      -117.74650     -0.40579700
       33.425635      -117.74674     -0.40579700
       33.424778      -117.74699     -0.40389347
       33.423922      -117.74723     -0.41230679
       33.423065      -117.74748     -0.40389347
       33.422208      -117.74772     -0.40389347
       33.421352      -117.74797     -0.39323425
       33.420496      -117.74821     -0.38482094
       33.419639      -117.74846     -0.38482094
       33.418781      -117.74871     -0.38482094
       33.417924      -117.74895     -0.41006136
       33.417068      -117.74919     -0.40164757
       33.416211      -117.74944     -0.41006136
       33.415354      -117.74968     -0.41006136
       33.414498      -117.74993     -0.42688799
       33.413641      -117.75017     -0.43530178
       33.412785      -117.75042     -0.43530178
       33.411928      -117.75066     -0.43672943
       33.411071      -117.75091     -0.43672943
       33.410214      -117.75116     -0.44514275
       33.409357      -117.75140     -0.44514275
       33.408500      -117.75164     -0.45355606
       33.407644      -117.75189     -0.44514275
       33.406787      -117.75214     -0.46196985
       33.405930      -117.75238     -0.46196985
       33.405074      -117.75262     -0.45355606
       33.404217      -117.75287     -0.46196985
       33.403360      -117.75311     -0.41809130
       33.402504      -117.75336     -0.40967798
       33.401647      -117.75360     -0.42650461
       33.400790      -117.75385     -0.41809130
       33.399933      -117.75410     -0.41809130
       33.399076      -117.75434     -0.43491840
       33.398219      -117.75459     -0.43491840
       33.397362      -117.75483     -0.43491840
       33.396505      -117.75508     -0.44333172
       33.395648      -117.75532     -0.43491840
       33.394792      -117.75557     -0.44333172
       33.393935      -117.75581     -0.39930248
       33.393077      -117.75606     -0.39930248
       33.392221      -117.75630     -0.39088869
       33.391364      -117.75654     -0.39930248
       33.390507      -117.75679     -0.39930248
       33.389651      -117.75704     -0.39930248
       33.388795      -117.75728     -0.40771580
       33.387938      -117.75752     -0.39930248
       33.387080      -117.75777     -0.41190529
       33.386224      -117.75801     -0.38666487
       33.385367      -117.75826     -0.39507866
       33.384511      -117.75851     -0.37246323
       33.383655      -117.75875     -0.36404991
       33.382798      -117.75900     -0.37246323
       33.381941      -117.75924     -0.37246323
       33.381083      -117.75948     -0.36404991
       33.380227      -117.75973     -0.36404991
       33.379371      -117.75998     -0.37246323
       33.378514      -117.76022     -0.35563612
       33.377657      -117.76047     -0.37246323
       33.376801      -117.76071     -0.37246323
       33.375945      -117.76096     -0.39457035
       33.375088      -117.76120     -0.39457035
       33.374231      -117.76144     -0.40298367
       33.373375      -117.76169     -0.40298367
       33.372519      -117.76193     -0.40298367
       33.371661      -117.76218     -0.39457035
       33.370804      -117.76243     -0.40298367
       33.369948      -117.76267     -0.39457035
       33.369091      -117.76292     -0.39457035
       33.368235      -117.76316     -0.38615704
       33.367379      -117.76341     -0.40298367
       33.366522      -117.76365     -0.41096687
       33.365666      -117.76390     -0.41096687
       33.364809      -117.76414     -0.40255356
       33.363952      -117.76439     -0.39414024
       33.363095      -117.76463     -0.41096687
       33.362239      -117.76488     -0.41096687
       33.361383      -117.76512     -0.40255356
       33.360526      -117.76537     -0.40255356
       33.359669      -117.76561     -0.40255356
       33.358812      -117.76586     -0.40255356
       33.357956      -117.76610     -0.39503860
       33.357099      -117.76635     -0.39503860
       33.356242      -117.76659     -0.39503860
       33.355386      -117.76684     -0.40345192
       33.354530      -117.76708     -0.39503860
       33.353673      -117.76733     -0.39503860
       33.352816      -117.76757     -0.38662529
       33.351959      -117.76782     -0.38662529
       33.351102      -117.76806     -0.38662529
       33.350245      -117.76831     -0.39503860
       33.349388      -117.76855     -0.37821150
       33.348532      -117.76880     -0.37434769
       33.347675      -117.76904     -0.36593437
       33.346819      -117.76929     -0.36593437
       33.345962      -117.76953     -0.34910727
       33.345104      -117.76977     -0.36593437
       33.344247      -117.77002     -0.34069395
       33.343391      -117.77027     -0.34910727
       33.342534      -117.77051     -0.34069395
       33.341678      -117.77076     -0.34910727
       33.340821      -117.77100     -0.34069395
       33.339965      -117.77125     -0.36133623
       33.339108      -117.77149     -0.35292292
       33.338250      -117.77174     -0.34450912
       33.337393      -117.77198     -0.35292292
       33.336536      -117.77223     -0.34450912
       33.335680      -117.77247     -0.35292292
       33.334824      -117.77272     -0.34450912
       33.333967      -117.77296     -0.34450912
       33.333110      -117.77320     -0.33609581
       33.332254      -117.77345     -0.33609581
       33.331397      -117.77369     -0.33609581
       33.330539      -117.77394     -0.33228016
       33.329683      -117.77418     -0.32386684
       33.328827      -117.77443     -0.31545353
       33.327970      -117.77467     -0.30704021
       33.327113      -117.77492     -0.30704021
       33.326257      -117.77516     -0.30704021
       33.325400      -117.77541     -0.31545353
       33.324543      -117.77565     -0.30704021
       33.323686      -117.77590     -0.31545353
       33.322830      -117.77614     -0.31545353
       33.321974      -117.77639     -0.32298088
       33.321118      -117.77663     -0.30615377
       33.320262      -117.77688     -0.32298088
       33.319405      -117.77712     -0.31456757
       33.318549      -117.77737     -0.32298088
       33.317692      -117.77761     -0.31456757
       33.316835      -117.77786     -0.30615377
       33.315978      -117.77810     -0.30615377
       33.315122      -117.77835     -0.30615377
       33.314266      -117.77859     -0.29774046
       33.313410      -117.77884     -0.28932714
       33.312553      -117.77908     -0.29962111
       33.311697      -117.77933     -0.30803442
       33.310841      -117.77957     -0.30003691
       33.309984      -117.77982     -0.29162359
       33.309128      -117.78006     -0.29162359
       33.308271      -117.78031     -0.28321028
       33.307415      -117.78055     -0.30003691
       33.306558      -117.78080     -0.29162359
       33.305701      -117.78104     -0.28321028
       33.304845      -117.78129     -0.29162359
       33.303988      -117.78153     -0.31320810
       33.303132      -117.78178     -0.30479479
       33.302275      -117.78202     -0.31320810
       33.301418      -117.78227     -0.30479479
       33.300561      -117.78252     -0.31320810
       33.299704      -117.78276     -0.31320810
       33.298848      -117.78300     -0.31320810
       33.297992      -117.78325     -0.29638147
       33.297134      -117.78349     -0.30479479
       33.296278      -117.78374     -0.29638147
       33.295421      -117.78398     -0.30479479
       33.294565      -117.78423     -0.31231165
       33.293707      -117.78447     -0.31231165
       33.292851      -117.78472     -0.31231165
       33.291994      -117.78496     -0.32072496
       33.291137      -117.78521     -0.30389833
       33.290281      -117.78545     -0.31231165
       33.289425      -117.78570     -0.31231165
       33.288568      -117.78594     -0.31231165
       33.287711      -117.78619     -0.32072496
       33.286854      -117.78643     -0.31231165
       33.285997      -117.78668     -0.34983397
       33.285140      -117.78692     -0.35824728
       33.284283      -117.78717     -0.34983397
       33.283427      -117.78741     -0.34983397
       33.282570      -117.78766     -0.36666107
       33.281714      -117.78790     -0.34983397
       33.280857      -117.78815     -0.34983397
       33.280000      -117.78839     -0.34983397
       33.279143      -117.78864     -0.34983397
       33.278286      -117.78888     -0.34983397
       33.277430      -117.78912     -0.34983397
       33.276574      -117.78937     -0.32970762
       33.275717      -117.78961     -0.32970762
       33.274860      -117.78986     -0.32970762
       33.274004      -117.79010     -0.33812094
       33.273147      -117.79035     -0.31563807
       33.272291      -117.79059     -0.31563807
       33.271434      -117.79084     -0.32405138
       33.270577      -117.79108     -0.31563807
       33.269721      -117.79133     -0.31563807
       33.268864      -117.79157     -0.31563807
       33.268008      -117.79182     -0.32170534
       33.267151      -117.79206     -0.32170534
       33.266294      -117.79230     -0.30487823
       33.265438      -117.79255     -0.32170534
       33.264582      -117.79279     -0.32170534
       33.263725      -117.79304     -0.31329203
       33.262868      -117.79328     -0.32170534
       33.262012      -117.79353     -0.32170534
       33.261156      -117.79377     -0.33853245
       33.260299      -117.79402     -0.31329203
       33.259443      -117.79426     -0.32170534
       33.258586      -117.79451     -0.34231615
       33.257729      -117.79475     -0.34231615
       33.256872      -117.79500     -0.32548952
       33.256016      -117.79524     -0.32548952
       33.255160      -117.79549     -0.34231615
       33.254303      -117.79573     -0.32548952
       33.253446      -117.79598     -0.33390284
       33.252589      -117.79622     -0.33390284
       33.251733      -117.79647     -0.34231615
       33.250876      -117.79671     -0.32548952
       33.250018      -117.79696     -0.32032824
       33.249161      -117.79720     -0.32874155
       33.248305      -117.79745     -0.32032824
       33.247448      -117.79769     -0.32874155
       33.246591      -117.79793     -0.32032824
       33.245734      -117.79818     -0.32874155
       33.244877      -117.79842     -0.32032824
       33.244020      -117.79867     -0.31191444
       33.243164      -117.79891     -0.31191444
       33.242307      -117.79916     -0.32874155
       33.241450      -117.79940     -0.32032824
       33.240593      -117.79965     -0.33956337
       33.239736      -117.79989     -0.34797716
       33.238879      -117.80014     -0.35639048
       33.238022      -117.80038     -0.35639048
       33.237165      -117.80063     -0.35639048
       33.236309      -117.80087     -0.35639048
       33.235452      -117.80112     -0.34090948
       33.234595      -117.80136     -0.33249617
       33.233738      -117.80160     -0.33249617
       33.232881      -117.80185     -0.31566906
       33.232024      -117.80209     -0.31790686
       33.231168      -117.80234     -0.30108023
       33.230310      -117.80258     -0.30108023
       33.229453      -117.80283     -0.31790686
       33.228597      -117.80307     -0.30949354
       33.227740      -117.80331     -0.30949354
       33.226883      -117.80356     -0.30949354
       33.226026      -117.80380     -0.29266644
       33.225169      -117.80405     -0.30949354
       33.224312      -117.80429     -0.30108023
       33.223456      -117.80454     -0.30108023
       33.222600      -117.80478     -0.31982660
       33.221742      -117.80503     -0.31141329
       33.220885      -117.80527     -0.31982660
       33.220028      -117.80552     -0.31141329
       33.219171      -117.80576     -0.31141329
       33.218315      -117.80600     -0.31982660
       33.217458      -117.80625     -0.31141329
       33.216601      -117.80649     -0.32823992
       33.215745      -117.80674     -0.31982660
       33.214888      -117.80698     -0.31982660
       33.214031      -117.80722     -0.30718756
       33.213175      -117.80747     -0.31560087
       33.212318      -117.80771     -0.31560087
       33.211461      -117.80796     -0.32401419
       33.210604      -117.80820     -0.30718756
       33.209748      -117.80844     -0.31560087
       33.208891      -117.80869     -0.31560087
       33.208034      -117.80893     -0.30718756
       33.207177      -117.80918     -0.32401419
       33.206320      -117.80942     -0.31560087
       33.205464      -117.80967     -0.32401419
       33.204607      -117.80991     -0.31137323
       33.203751      -117.81015     -0.31137323
       33.202894      -117.81040     -0.30295992
       33.202037      -117.81064     -0.31137323
       33.201180      -117.81089     -0.31978655
       33.200324      -117.81113     -0.31137323
       33.199467      -117.81138     -0.31137323
       33.198610      -117.81162     -0.31137323
       33.197754      -117.81186     -0.28173876
       33.196897      -117.81211     -0.28173876
       33.196041      -117.81235     -0.28173876
       33.195184      -117.81260     -0.29120779
       33.194328      -117.81284     -0.29962111
       33.193471      -117.81308     -0.30803442
       33.192613      -117.81333     -0.29962111
       33.191756      -117.81357     -0.29962111
       33.190900      -117.81382     -0.29962111
       33.190043      -117.81406     -0.29962111
       33.189186      -117.81431     -0.29962111
       33.188329      -117.81455     -0.30803442
       33.187472      -117.81480     -0.29120779
       33.186615      -117.81504     -0.31184053
       33.185759      -117.81528     -0.30342722
       33.184902      -117.81553     -0.30342722
       33.184045      -117.81577     -0.30342722
       33.183188      -117.81602     -0.31184053
       33.182331      -117.81626     -0.31184053
       33.181475      -117.81650     -0.31184053
       33.180618      -117.81675     -0.31184053
       33.179761      -117.81699     -0.31184053
       33.178904      -117.81724     -0.31184053
       33.178046      -117.81748     -0.31184053
       33.177189      -117.81772     -0.30150461
       33.176332      -117.81797     -0.29309130
       33.175476      -117.81821     -0.29309130
       33.174619      -117.81845     -0.30150461
       33.173762      -117.81870     -0.29309130
       33.172905      -117.81894     -0.30150461
       33.172048      -117.81919     -0.28467751
       33.171192      -117.81943     -0.30150461
       33.170335      -117.81968     -0.30150461
       33.169478      -117.81992     -0.30150461
       33.168622      -117.82016     -0.30009127
       33.167765      -117.82041     -0.29167795
       33.166908      -117.82065     -0.29167795
       33.166051      -117.82090     -0.30009127
       33.165194      -117.82114     -0.30009127
       33.164337      -117.82139     -0.30009127
       33.163481      -117.82163     -0.29167795
       33.162624      -117.82187     -0.30009127
       33.161766      -117.82212     -0.28326416
       33.160909      -117.82236     -0.29167795
       33.160052      -117.82260     -0.28326416
       33.159196      -117.82285     -0.28744745
       33.158340      -117.82309     -0.27903366
       33.157483      -117.82334     -0.28744745
       33.156626      -117.82358     -0.27903366
       33.155769      -117.82382     -0.28744745
       33.154912      -117.82407     -0.28744745
       33.154055      -117.82431     -0.29586077
       33.153199      -117.82456     -0.29586077
       33.152342      -117.82480     -0.30427408
       33.151485      -117.82504     -0.31268787
       33.150629      -117.82529     -0.30709600
       33.149772      -117.82553     -0.31550980
       33.148915      -117.82578     -0.31550980
       33.148059      -117.82602     -0.32392311
       33.147202      -117.82626     -0.32392311
       33.146345      -117.82651     -0.33233643
       33.145489      -117.82675     -0.32392311
       33.144632      -117.82700     -0.34074974
       33.143775      -117.82724     -0.33233643
       33.142917      -117.82748     -0.33233643
       33.142061      -117.82773     -0.33233643
       33.141204      -117.82797     -0.32104397
       33.140348      -117.82822     -0.32104397
       33.139491      -117.82846     -0.32104397
       33.138634      -117.82871     -0.32104397
       33.137778      -117.82895     -0.32104397
       33.136921      -117.82919     -0.32104397
       33.136064      -117.82944     -0.32104397
       33.135207      -117.82968     -0.32104397
       33.134351      -117.82993     -0.32104397
       33.133494      -117.83017     -0.32104397
       33.132638      -117.83041     -0.31968880
       33.131781      -117.83066     -0.32810211
       33.130924      -117.83090     -0.33651543
       33.130067      -117.83115     -0.33651543
       33.129211      -117.83139     -0.33651543
       33.128354      -117.83163     -0.33651543
       33.127497      -117.83188     -0.33651543
       33.126640      -117.83212     -0.33651543
       33.125783      -117.83237     -0.33651543
       33.124926      -117.83261     -0.34492922
       33.124069      -117.83286     -0.34492922
       33.123213      -117.83310     -0.34634161
       33.122356      -117.83334     -0.32951450
       33.121500      -117.83359     -0.31909561
       33.120642      -117.83383     -0.31909561
       33.119786      -117.83408     -0.31909561
       33.118929      -117.83432     -0.31909561
       33.118072      -117.83456     -0.31909561
       33.117215      -117.83481     -0.32750940
       33.116358      -117.83505     -0.31909561
       33.115501      -117.83530     -0.32750940
       33.114644      -117.83554     -0.32804394
       33.113787      -117.83578     -0.33645773
       33.112931      -117.83603     -0.33645773
       33.112074      -117.83627     -0.33645773
       33.111216      -117.83652     -0.33645773
       33.110359      -117.83676     -0.33645773
       33.109503      -117.83700     -0.32804394
       33.108646      -117.83725     -0.33645773
       33.107789      -117.83749     -0.33645773
       33.106932      -117.83774     -0.33645773
       33.106075      -117.83798     -0.34487104
       33.105219      -117.83823     -0.31956482
       33.104362      -117.83847     -0.31956482
       33.103504      -117.83871     -0.31956482
       33.102647      -117.83896     -0.31956482
       33.101790      -117.83920     -0.31956482
       33.100934      -117.83945     -0.31956482
       33.100077      -117.83969     -0.32797861
       33.099220      -117.83993     -0.31956482
       33.098363      -117.84018     -0.32797861
       33.097506      -117.84042     -0.33639193
       33.096650      -117.84067     -0.33922052
       33.095793      -117.84091     -0.33922052
       33.094936      -117.84115     -0.33080721
       33.094079      -117.84140     -0.31398010
       33.093221      -117.84164     -0.33080721
       33.092364      -117.84189     -0.32239342
       33.091508      -117.84213     -0.31398010
       33.090652      -117.84237     -0.32239342
       33.089794      -117.84262     -0.33080721
       33.088937      -117.84286     -0.32239342
       33.088080      -117.84311     -0.33080721
       33.087224      -117.84335     -0.32562494
       33.086367      -117.84359     -0.31721115
       33.085510      -117.84384     -0.32562494
       33.084653      -117.84408     -0.31721115
       33.083797      -117.84432     -0.32239342
       33.082940      -117.84457     -0.32239342
       33.082083      -117.84481     -0.33922052
       33.081226      -117.84506     -0.33922052
       33.080370      -117.84530     -0.33080721
       33.079513      -117.84555     -0.33080721
       33.078657      -117.84579     -0.33316088
       33.077800      -117.84603     -0.33316088
       33.076943      -117.84628     -0.33316088
       33.076087      -117.84652     -0.33316088
       33.075230      -117.84677     -0.33316088
       33.074374      -117.84701     -0.33316088
       33.073517      -117.84726     -0.33316088
       33.072661      -117.84750     -0.32474709
       33.071804      -117.84774     -0.33316088
       33.070947      -117.84799     -0.33316088
       33.070090      -117.84823     -0.33316088
       33.069233      -117.84848     -0.31100798
       33.068377      -117.84872     -0.29418087
       33.067520      -117.84896     -0.30259418
       33.066663      -117.84921     -0.30259418
       33.065807      -117.84945     -0.31100798
       33.064950      -117.84970     -0.31100798
       33.064094      -117.84994     -0.30259418
       33.063238      -117.85018     -0.30259418
       33.062380      -117.85043     -0.30259418
       33.061523      -117.85067     -0.31100798
       33.060667      -117.85092     -0.32663345
       33.059810      -117.85116     -0.32663345
       33.058953      -117.85140     -0.32663345
       33.058096      -117.85165     -0.33504725
       33.057240      -117.85189     -0.33504725
       33.056384      -117.85214     -0.33504725
       33.055527      -117.85238     -0.33504725
       33.054670      -117.85262     -0.33504725
       33.053813      -117.85287     -0.33504725
       33.052956      -117.85311     -0.33504725
       33.052100      -117.85335     -0.34346056
       33.051244      -117.85360     -0.33221960
       33.050386      -117.85384     -0.33221960
       33.049529      -117.85409     -0.33221960
       33.048672      -117.85433     -0.32380581
       33.047816      -117.85457     -0.33221960
       33.046959      -117.85482     -0.32380581
       33.046102      -117.85506     -0.33221960
       33.045245      -117.85530     -0.33645773
       33.044389      -117.85555     -0.32804394
       33.043533      -117.85579     -0.31963062
       33.042676      -117.85604     -0.31478071
       33.041818      -117.85628     -0.31478071
       33.040962      -117.85652     -0.30636692
       33.040105      -117.85677     -0.31478071
       33.039247      -117.85701     -0.31478071
       33.038390      -117.85725     -0.31478071
       33.037533      -117.85750     -0.30636692
       33.036677      -117.85774     -0.31478071
       33.035821      -117.85799     -0.31478071
       33.034963      -117.85823     -0.30636692
       33.034106      -117.85847     -0.30636692
       33.033249      -117.85872     -0.32420874
       33.032392      -117.85896     -0.31579494
       33.031536      -117.85920     -0.30738163
       33.030679      -117.85945     -0.32420874
       33.029823      -117.85969     -0.31579494
       33.028966      -117.85993     -0.32420874
       33.028109      -117.86018     -0.31579494
       33.027252      -117.86042     -0.31579494
       33.026395      -117.86066     -0.31579494
       33.025539      -117.86091     -0.32420874
       33.024682      -117.86115     -0.31202412
       33.023825      -117.86139     -0.32885122
       33.022968      -117.86164     -0.31202412
       33.022112      -117.86188     -0.32043791
       33.021255      -117.86212     -0.30361080
       33.020397      -117.86237     -0.32043791
       33.019540      -117.86261     -0.32885122
       33.018682      -117.86286     -0.32043791
       33.017826      -117.86310     -0.31202412
       33.016968      -117.86334     -0.30361080
       33.016111      -117.86359     -0.31202412
       33.015255      -117.86383     -0.32790995
       33.014398      -117.86407     -0.31108284
       33.013542      -117.86432     -0.31108284
       33.012685      -117.86456     -0.31949663
       33.011829      -117.86481     -0.31108284
       33.010972      -117.86505     -0.31108284
       33.010116      -117.86529     -0.31949663
       33.009259      -117.86553     -0.31949663
       33.008402      -117.86578     -0.30266953
       33.007545      -117.86602     -0.30589867
       33.006688      -117.86627     -0.30919456
       33.005831      -117.86651     -0.30919456
       33.004973      -117.86675     -0.30919456
       33.004117      -117.86700     -0.30919456
       33.003260      -117.86724     -0.31760836
       33.002403      -117.86748     -0.30078125
       33.001546      -117.86773     -0.30919456
       33.000689      -117.86797     -0.30919456
       32.999833      -117.86821     -0.30919456
       32.998977      -117.86846     -0.30919456
       32.998120      -117.86870     -0.30919456
       32.997263      -117.86894     -0.32326841
       32.996406      -117.86919     -0.32326841
       32.995549      -117.86943     -0.31485462
       32.994691      -117.86967     -0.30644131
       32.993834      -117.86992     -0.30644131
       32.992978      -117.87016     -0.30644131
       32.992122      -117.87040     -0.31485462
       32.991265      -117.87065     -0.31485462
       32.990408      -117.87089     -0.32326841
       32.989551      -117.87114     -0.32326841
       32.988694      -117.87138     -0.31485462
       32.987837      -117.87162     -0.31956482
       32.986980      -117.87186     -0.32797861
       32.986124      -117.87211     -0.31956482
       32.985267      -117.87235     -0.31115150
       32.984410      -117.87259     -0.31115150
       32.983553      -117.87284     -0.31115150
       32.982696      -117.87308     -0.31956482
       32.981840      -117.87332     -0.31956482
       32.980983      -117.87357     -0.31956482
       32.980126      -117.87381     -0.31956482
       32.979269      -117.87405     -0.31155491
       32.978411      -117.87430     -0.29472828
       32.977554      -117.87454     -0.30314159
       32.976697      -117.87478     -0.30314159
       32.975840      -117.87503     -0.30314159
       32.974983      -117.87527     -0.31155491
       32.974127      -117.87551     -0.31996870
       32.973270      -117.87576     -0.31155491
       32.972413      -117.87600     -0.30314159
       32.971556      -117.87624     -0.30314159
       32.970699      -117.87649     -0.31155491
       32.969842      -117.87673     -0.32292652
       32.968985      -117.87697     -0.33604240
       32.968128      -117.87721     -0.32762909
       32.967271      -117.87746     -0.31921577
       32.966414      -117.87770     -0.31921577
       32.965558      -117.87794     -0.33604240
       32.964701      -117.87819     -0.32762909
       32.963844      -117.87843     -0.32762909
       32.962986      -117.87867     -0.32762909
       32.962129      -117.87892     -0.31921577
       32.961272      -117.87916     -0.33327484
       32.960415      -117.87940     -0.33327484
       32.959558      -117.87965     -0.34168816
       32.958702      -117.87989     -0.33327484
       32.957846      -117.88013     -0.32486153
       32.956989      -117.88038     -0.32486153
       32.956132      -117.88062     -0.34168816
       32.955274      -117.88086     -0.33327484
       32.954418      -117.88111     -0.33327484
       32.953561      -117.88135     -0.34168816
       32.952704      -117.88159     -0.33327484
       32.951848      -117.88184     -0.29802799
       32.950991      -117.88208     -0.29802799
       32.950134      -117.88232     -0.29802799
       32.949276      -117.88257     -0.30644131
       32.948420      -117.88281     -0.30644131
       32.947564      -117.88305     -0.30644131
       32.946707      -117.88329     -0.30644131
       32.945850      -117.88354     -0.29802799
       32.944993      -117.88378     -0.30644131
       32.944137      -117.88402     -0.31485462
       32.943280      -117.88427     -0.30919456
       32.942423      -117.88451     -0.30919456
       32.941566      -117.88475     -0.30078125
       32.940710      -117.88500     -0.30078125
       32.939853      -117.88524     -0.30078125
       32.938996      -117.88548     -0.30919456
       32.938140      -117.88573     -0.30919456
       32.937283      -117.88597     -0.30919456
       32.936427      -117.88621     -0.30919456
       32.935570      -117.88646     -0.30078125
       32.934713      -117.88670     -0.30919456
       32.933856      -117.88694     -0.31721115
       32.932999      -117.88719     -0.30879784
       32.932142      -117.88743     -0.31721115
       32.931286      -117.88767     -0.33363104
       32.930429      -117.88792     -0.32521725
       32.929573      -117.88816     -0.33363104
       32.928716      -117.88840     -0.32521725
       32.927859      -117.88865     -0.31680393
       32.927002      -117.88889     -0.32521725
       32.926146      -117.88913     -0.33363104
       32.925289      -117.88937     -0.31398010
       32.924432      -117.88962     -0.32239342
       32.923575      -117.88986     -0.31398010
       32.922719      -117.89010     -0.31398010
       32.921862      -117.89035     -0.32239342
       32.921006      -117.89059     -0.32239342
       32.920149      -117.89083     -0.33080721
       32.919293      -117.89107     -0.32239342
       32.918435      -117.89132     -0.31398010
       32.917577      -117.89156     -0.30556679
       32.916720      -117.89180     -0.30556679
       32.915863      -117.89205     -0.31249714
       32.915007      -117.89229     -0.31249714
       32.914151      -117.89253     -0.30408382
       32.913294      -117.89278     -0.30408382
       32.912436      -117.89302     -0.32091093
       32.911580      -117.89326     -0.31249714
       32.910723      -117.89351     -0.31249714
       32.909866      -117.89375     -0.31249714
       32.909009      -117.89399     -0.30408382
       32.908152      -117.89424     -0.30408382
       32.907296      -117.89448     -0.30919456
       32.906439      -117.89472     -0.30919456
       32.905582      -117.89497     -0.30078125
       32.904725      -117.89521     -0.30919456
       32.903868      -117.89545     -0.30919456
       32.903011      -117.89569     -0.30919456
       32.902155      -117.89594     -0.30078125
       32.901298      -117.89618     -0.30078125
       32.900442      -117.89642     -0.30078125
       32.899585      -117.89667     -0.32602167
       32.898727      -117.89691     -0.30919456
       32.897870      -117.89715     -0.30542374
       32.897014      -117.89740     -0.31383753
       32.896157      -117.89764     -0.30542374
       32.895300      -117.89788     -0.31383753
       32.894444      -117.89813     -0.29701042
       32.893587      -117.89837     -0.29701042
       32.892730      -117.89862     -0.31242132
       32.891874      -117.89886     -0.30400753
       32.891017      -117.89910     -0.30400753
       32.890160      -117.89934     -0.29559422
       32.889303      -117.89959     -0.33874750
       32.888446      -117.89983     -0.31350708
       32.887590      -117.90007     -0.32192039
       32.886733      -117.90032     -0.32192039
       32.885877      -117.90056     -0.31350708
       32.885020      -117.90080     -0.32192039
       32.884163      -117.90105     -0.33033419
       32.883307      -117.90129     -0.31350708
       32.882450      -117.90153     -0.34716082
       32.881593      -117.90178     -0.32192039
       32.880736      -117.90202     -0.33033419
       32.879879      -117.90226     -0.33645773
       32.879023      -117.90251     -0.32804394
       32.878166      -117.90275     -0.33645773
       32.877308      -117.90299     -0.33645773
       32.876452      -117.90324     -0.32804394
       32.875595      -117.90348     -0.33645773
       32.874738      -117.90372     -0.33645773
       32.873881      -117.90397     -0.33645773
       32.873024      -117.90421     -0.34487104
       32.872168      -117.90445     -0.32804394
       32.871312      -117.90470     -0.32279730
       32.870454      -117.90494     -0.31438351
       32.869597      -117.90518     -0.32279730
       32.868741      -117.90542     -0.32279730
       32.867884      -117.90567     -0.30597019
       32.867027      -117.90591     -0.32279730
       32.866170      -117.90615     -0.33121061
       32.865312      -117.90640     -0.32279730
       32.864456      -117.90664     -0.32279730
       32.863599      -117.90688     -0.33121061
       32.862742      -117.90713     -0.32279730
       32.861886      -117.90737     -0.31564379
       32.861029      -117.90761     -0.30723047
       32.860172      -117.90786     -0.31564379
       32.859314      -117.90810     -0.31564379
       32.858457      -117.90834     -0.30723047
       32.857600      -117.90858     -0.30723047
       32.856744      -117.90883     -0.30723047
       32.855887      -117.90907     -0.30723047
       32.855030      -117.90931     -0.31525373
       32.854173      -117.90956     -0.32366705
       32.853316      -117.90980     -0.31619501
       32.852458      -117.91004     -0.31619501
       32.851602      -117.91029     -0.32460833
       32.850745      -117.91053     -0.32460833
       32.849889      -117.91077     -0.30778122
       32.849032      -117.91102     -0.32460833
       32.848175      -117.91126     -0.31619501
       32.847318      -117.91150     -0.31619501
       32.846461      -117.91174     -0.32460833
       32.845604      -117.91199     -0.30778122
       32.844747      -117.91223     -0.31619501
       32.843890      -117.91247     -0.31155491
       32.843033      -117.91272     -0.32838202
       32.842176      -117.91296     -0.31996870
       32.841320      -117.91320     -0.31996870
       32.840464      -117.91345     -0.30314159
       32.839607      -117.91369     -0.31155491
       32.838750      -117.91393     -0.31155491
       32.837893      -117.91417     -0.31996870
       32.837035      -117.91442     -0.31996870
       32.836178      -117.91466     -0.31996870
       32.835322      -117.91490     -0.31249714
       32.834465      -117.91515     -0.32091093
       32.833608      -117.91539     -0.31249714
       32.832752      -117.91563     -0.32091093
       32.831894      -117.91588     -0.32091093
       32.831038      -117.91612     -0.32932425
       32.830182      -117.91636     -0.31249714
       32.829324      -117.91660     -0.31249714
       32.828468      -117.91685     -0.32091093
       32.827611      -117.91709     -0.30408382
       32.826754      -117.91733     -0.32091093
       32.825897      -117.91758     -0.31525373
       32.825040      -117.91782     -0.30683994
       32.824183      -117.91806     -0.29842663
       32.823326      -117.91830     -0.30683994
       32.822469      -117.91855     -0.31525373
       32.821612      -117.91879     -0.30683994
       32.820755      -117.91903     -0.30683994
       32.819899      -117.91927     -0.30683994
       32.819042      -117.91952     -0.32366705
       32.818185      -117.91976     -0.30683994
       32.817328      -117.92000     -0.31525373
       32.816470      -117.92025     -0.30031300
       32.815613      -117.92049     -0.30872631
       32.814756      -117.92073     -0.31714010
       32.813899      -117.92097     -0.30872631
       32.813042      -117.92122     -0.30872631
       32.812185      -117.92146     -0.30872631
       32.811329      -117.92170     -0.31714010
       32.810471      -117.92194     -0.31714010
       32.809614      -117.92219     -0.30872631
       32.808757      -117.92243     -0.30872631
       32.807900      -117.92267     -0.30832577
       32.807043      -117.92291     -0.31673908
       32.806186      -117.92316     -0.31673908
       32.805328      -117.92340     -0.33356619
       32.804471      -117.92364     -0.31673908
       32.803615      -117.92388     -0.33356619
       32.802758      -117.92413     -0.33356619
       32.801900      -117.92437     -0.31673908
       32.801044      -117.92461     -0.31673908
       32.800187      -117.92485     -0.32515287
       32.799329      -117.92510     -0.32743883
       32.798473      -117.92534     -0.31902552
       32.797616      -117.92558     -0.31902552
       32.796758      -117.92583     -0.31061172
       32.795902      -117.92607     -0.31902552
       32.795045      -117.92631     -0.31902552
       32.794188      -117.92655     -0.31061172
       32.793331      -117.92679     -0.31902552
       32.792474      -117.92704     -0.31061172
       32.791617      -117.92728     -0.31902552
       32.790760      -117.92752     -0.31902552
       32.789903      -117.92777     -0.30636692
       32.789046      -117.92801     -0.31478071
       32.788189      -117.92825     -0.31478071
       32.787333      -117.92849     -0.31478071
       32.786476      -117.92873     -0.31478071
       32.785619      -117.92898     -0.30636692
       32.784761      -117.92922     -0.31478071
       32.783904      -117.92946     -0.31478071
       32.783048      -117.92970     -0.31478071
       32.782192      -117.92995     -0.31478071
       32.781335      -117.93019     -0.31478071
       32.780478      -117.93043     -0.32185221
       32.779621      -117.93067     -0.32185221
       32.778764      -117.93092     -0.32885122
       32.777907      -117.93116     -0.32043791
       32.777050      -117.93140     -0.31202412
       32.776193      -117.93164     -0.30361080
       32.775336      -117.93189     -0.32885122
       32.774480      -117.93213     -0.31202412
       32.773623      -117.93237     -0.31202412
       32.772766      -117.93261     -0.32043791
       32.771910      -117.93286     -0.32468081
       32.771052      -117.93310     -0.31626701
       32.770195      -117.93334     -0.32468081
       32.769338      -117.93358     -0.33309412
       32.768481      -117.93383     -0.32468081
       32.767624      -117.93407     -0.32468081
       32.766768      -117.93431     -0.32468081
       32.765910      -117.93455     -0.33309412
       32.765054      -117.93480     -0.32468081
       32.764197      -117.93504     -0.31626701
       32.763339      -117.93528     -0.32468081
       32.762482      -117.93552     -0.33780527
       32.761625      -117.93577     -0.32939196
       32.760768      -117.93601     -0.32939196
       32.759911      -117.93625     -0.32939196
       32.759054      -117.93649     -0.32939196
       32.758197      -117.93673     -0.32939196
       32.757340      -117.93698     -0.32939196
       32.756483      -117.93722     -0.32097816
       32.755626      -117.93746     -0.32097816
       32.754769      -117.93770     -0.32097816
       32.753912      -117.93795     -0.31815243
       32.753055      -117.93819     -0.31815243
       32.752197      -117.93843     -0.32656622
       32.751340      -117.93867     -0.30973911
       32.750483      -117.93892     -0.30973911
       32.749626      -117.93916     -0.30132580
       32.748770      -117.93940     -0.30132580
       32.747912      -117.93964     -0.30132580
       32.747055      -117.93989     -0.30132580
       32.746198      -117.94013     -0.30973911
       32.745341      -117.94037     -0.30973911
       32.744483      -117.94061     -0.32110119
       32.743626      -117.94085     -0.32110119
       32.742770      -117.94110     -0.31268787
       32.741912      -117.94134     -0.32110119
       32.741056      -117.94158     -0.32110119
       32.740199      -117.94182     -0.33280659
       32.739341      -117.94207     -0.32439327
       32.738484      -117.94231     -0.31597996
       32.737627      -117.94255     -0.31597996
       32.736769      -117.94279     -0.32439327
       32.735913      -117.94303     -0.32119417
       32.735056      -117.94328     -0.32119417
       32.734199      -117.94352     -0.33802128
       32.733342      -117.94376     -0.32960796
       32.732485      -117.94400     -0.32960796
       32.731628      -117.94424     -0.32960796
       32.730771      -117.94449     -0.32119417
       32.729914      -117.94473     -0.32960796
       32.729057      -117.94497     -0.32119417
       32.728200      -117.94521     -0.32119417
       32.727344      -117.94546     -0.32960796
       32.726487      -117.94570     -0.32636213
       32.725630      -117.94594     -0.32636213
       32.724773      -117.94618     -0.32636213
       32.723916      -117.94642     -0.33477592
       32.723059      -117.94667     -0.32636213
       32.722201      -117.94691     -0.33477592
       32.721344      -117.94715     -0.33477592
       32.720488      -117.94739     -0.31794882
       32.719631      -117.94763     -0.31794882
       32.718774      -117.94788     -0.31794882
       32.717916      -117.94812     -0.30803442
       32.717059      -117.94836     -0.30803442
       32.716202      -117.94860     -0.29962111
       32.715346      -117.94885     -0.29962111
       32.714488      -117.94909     -0.29120779
       32.713631      -117.94933     -0.30803442
       32.712775      -117.94957     -0.29962111
       32.711918      -117.94981     -0.29962111
       32.711061      -117.95006     -0.30803442
       32.710204      -117.95030     -0.30803442
       32.709346      -117.95054     -0.31644821
       32.708489      -117.95078     -0.29956484
       32.707632      -117.95103     -0.29115152
       32.706775      -117.95127     -0.30797863
       32.705918      -117.95151     -0.30797863
       32.705061      -117.95175     -0.29956484
       32.704204      -117.95199     -0.29956484
       32.703346      -117.95224     -0.29115152
       32.702489      -117.95248     -0.29956484
       32.701632      -117.95272     -0.30333185
       32.700775      -117.95296     -0.29491854
       32.699918      -117.95321     -0.30009127
       32.699061      -117.95345     -0.30850458
       32.698204      -117.95369     -0.30850458
       32.697347      -117.95393     -0.30850458
       32.696489      -117.95417     -0.30850458
       32.695632      -117.95442     -0.30850458
       32.694776      -117.95466     -0.30850458
       32.693918      -117.95490     -0.30009127
       32.693062      -117.95514     -0.30009127
       32.692205      -117.95538     -0.30009127
       32.691347      -117.95563     -0.30850458
       32.690490      -117.95587     -0.31043577
       32.689633      -117.95611     -0.31884909
       32.688776      -117.95635     -0.31884909
       32.687919      -117.95659     -0.31884909
       32.687061      -117.95684     -0.31043577
       32.686204      -117.95708     -0.32726288
       32.685348      -117.95732     -0.31884909
       32.684491      -117.95756     -0.31043577
       32.683634      -117.95780     -0.31884909
       32.682777      -117.95805     -0.31884909
       32.681920      -117.95829     -0.30150461
       32.681062      -117.95853     -0.30991793
       32.680205      -117.95877     -0.30150461
       32.679349      -117.95901     -0.29309130
       32.678491      -117.95925     -0.30991793
       32.677634      -117.95950     -0.30991793
       32.676777      -117.95974     -0.30991793
       32.675920      -117.95998     -0.30991793
       32.675063      -117.96022     -0.30991793
       32.674205      -117.96046     -0.30150461
       32.673349      -117.96071     -0.30150461
       32.672491      -117.96095     -0.32585049
       32.671634      -117.96119     -0.31743670
       32.670776      -117.96143     -0.31743670
       32.669920      -117.96167     -0.31743670
       32.669063      -117.96192     -0.30902338
       32.668206      -117.96216     -0.32585049
       32.667350      -117.96240     -0.30902338
       32.666492      -117.96264     -0.31743670
       32.665635      -117.96288     -0.30902338
       32.664778      -117.96313     -0.32585049
       32.663921      -117.96337     -0.30056143
       32.663064      -117.96361     -0.30897474
       32.662207      -117.96385     -0.31738853
       32.661349      -117.96409     -0.30897474
       32.660492      -117.96433     -0.30056143
       32.659634      -117.96458     -0.30056143
       32.658778      -117.96482     -0.30897474
       32.657921      -117.96506     -0.30056143
       32.657064      -117.96530     -0.30897474
       32.656207      -117.96554     -0.30897474
       32.655350      -117.96579     -0.30897474
       32.654493      -117.96603     -0.30944777
       32.653636      -117.96627     -0.31786156
       32.652779      -117.96651     -0.30103445
       32.651921      -117.96676     -0.30944777
       32.651064      -117.96700     -0.31786156
       32.650207      -117.96724     -0.30944777
       32.649350      -117.96748     -0.31786156
       32.648492      -117.96772     -0.30103445
       32.647636      -117.96796     -0.30944777
       32.646779      -117.96821     -0.30944777
       32.645922      -117.96845     -0.29774046
       32.645065      -117.96869     -0.30615377
       32.644208      -117.96893     -0.31456757
       32.643350      -117.96917     -0.29774046
       32.642494      -117.96942     -0.31456757
       32.641637      -117.96966     -0.29774046
       32.640780      -117.96990     -0.30615377
       32.639923      -117.97014     -0.29774046
       32.639065      -117.97038     -0.30615377
       32.638208      -117.97062     -0.30615377
       32.637351      -117.97087     -0.30615377
       32.636494      -117.97111     -0.30050898
       32.635637      -117.97135     -0.30892277
       32.634780      -117.97159     -0.30050898
       32.633923      -117.97183     -0.30050898
       32.633066      -117.97207     -0.30050898
       32.632209      -117.97232     -0.30050898
       32.631352      -117.97256     -0.30050898
       32.630495      -117.97280     -0.30892277
       32.629638      -117.97304     -0.30050898
       32.628781      -117.97328     -0.30050898
       32.627924      -117.97353     -0.29444838
       32.627067      -117.97377     -0.30286169
       32.626211      -117.97401     -0.31127548
       32.625353      -117.97425     -0.30003691
       32.624496      -117.97449     -0.30845070
       32.623639      -117.97473     -0.29162359
       32.622782      -117.97498     -0.30003691
       32.621925      -117.97522     -0.30845070
       32.621068      -117.97546     -0.30003691
       32.620211      -117.97570     -0.30003691
       32.619354      -117.97594     -0.30003691
       32.618497      -117.97618     -0.28638315
       32.617641      -117.97643     -0.28638315
       32.616784      -117.97667     -0.28638315
       32.615928      -117.97691     -0.29479694
       32.615070      -117.97715     -0.28638315
       32.614213      -117.97739     -0.29479694
       32.613356      -117.97763     -0.28638315
       32.612498      -117.97788     -0.28638315
       32.611641      -117.97812     -0.27796984
       32.610784      -117.97836     -0.28638315
       32.609927      -117.97860     -0.28079748
       32.609071      -117.97884     -0.28079748
       32.608214      -117.97908     -0.28079748
       32.607356      -117.97933     -0.28921080
       32.606499      -117.97957     -0.28921080
       32.605642      -117.97981     -0.28921080
       32.604785      -117.98005     -0.28921080
       32.603929      -117.98029     -0.28079748
       32.603072      -117.98053     -0.28921080
       32.602215      -117.98078     -0.28921080
       32.601357      -117.98102     -0.28921080
       32.600500      -117.98126     -0.29486227
       32.599642      -117.98150     -0.28644896
       32.598786      -117.98174     -0.28644896
       32.597929      -117.98198     -0.28644896
       32.597072      -117.98223     -0.29486227
       32.596215      -117.98247     -0.30327606
       32.595358      -117.98271     -0.30327606
       32.594500      -117.98295     -0.29486227
       32.593643      -117.98319     -0.29486227
       32.592786      -117.98344     -0.28644896
       32.591929      -117.98368     -0.28456640
       32.591072      -117.98392     -0.29297972
       32.590215      -117.98416     -0.30139351
       32.589358      -117.98440     -0.29297972
       32.588501      -117.98465     -0.28456640
       32.587644      -117.98489     -0.28456640
       32.586787      -117.98513     -0.28409338
       32.585929      -117.98537     -0.28409338
       32.585073      -117.98561     -0.28409338
       32.584216      -117.98585     -0.28409338
       32.583358      -117.98610     -0.28409338
       32.582501      -117.98634     -0.28832865
       32.581644      -117.98658     -0.28832865
       32.580787      -117.98682     -0.29674196
       32.579929      -117.98706     -0.29674196
       32.579072      -117.98731     -0.27991533
       32.578215      -117.98755     -0.28832865
       32.577358      -117.98779     -0.28832865
       32.576501      -117.98803     -0.28832865
       32.575645      -117.98827     -0.27991533
       32.574788      -117.98851     -0.29674196
       32.573931      -117.98876     -0.29538965
       32.573075      -117.98900     -0.29538965
       32.572218      -117.98924     -0.29538965
       32.571361      -117.98948     -0.28697634
       32.570504      -117.98972     -0.29538965
       32.569647      -117.98997     -0.28697634
       32.568790      -117.99021     -0.29538965
       32.567933      -117.99045     -0.30380297
       32.567076      -117.99069     -0.27856255
       32.566219      -117.99093     -0.28697634
       32.565361      -117.99117     -0.27856255
       32.564504      -117.99141     -0.25635958
       32.563647      -117.99166     -0.26477289
       32.562790      -117.99190     -0.25635958
       32.561933      -117.99214     -0.26477289
       32.561076      -117.99238     -0.25635958
       32.560220      -117.99262     -0.25635958
       32.559363      -117.99286     -0.24794579
       32.558506      -117.99311     -0.24794579
       32.557649      -117.99335     -0.25635958
       32.556793      -117.99359     -0.25635958
       32.555936      -117.99383     -0.24794579
       32.555079      -117.99407     -0.26302624
       32.554222      -117.99431     -0.26302624
       32.553365      -117.99455     -0.27144003
       32.552508      -117.99480     -0.27144003
       32.551651      -117.99504     -0.27144003
       32.550793      -117.99528     -0.25461292
       32.549937      -117.99552     -0.26302624
       32.549079      -117.99576     -0.26302624
       32.548222      -117.99600     -0.26632309
       32.547366      -117.99625     -0.25790977
       32.546508      -117.99649     -0.26873493
       32.545651      -117.99673     -0.27714825
       32.544794      -117.99697     -0.27714825
       32.543938      -117.99721     -0.27714825
       32.543081      -117.99745     -0.27714825
       32.542224      -117.99769     -0.27714825
       32.541367      -117.99794     -0.26873493
       32.540509      -117.99818     -0.27714825
       32.539652      -117.99842     -0.26873493
       32.538795      -117.99866     -0.28556204
       32.537938      -117.99890     -0.26873493
       32.537081      -117.99914     -0.27056313
       32.536224      -117.99938     -0.27056313
       32.535366      -117.99963     -0.25373650
       32.534509      -117.99987     -0.26214981
       32.533652      -118.00011     -0.26214981
       32.532795      -118.00035     -0.25373650
       32.531937      -118.00059     -0.27056313
       32.531080      -118.00083     -0.26214981
       32.530223      -118.00107     -0.27056313
       32.529365      -118.00132     -0.27056313
       32.528508      -118.00156     -0.26544189
       32.527651      -118.00180     -0.26544189
       32.526795      -118.00204     -0.27385521
       32.525937      -118.00228     -0.27385521
       32.525080      -118.00252     -0.26544189
       32.524223      -118.00276     -0.26544189
       32.523366      -118.00301     -0.25702858
       32.522509      -118.00325     -0.26544189
       32.521651      -118.00349     -0.25702858
       32.520793      -118.00373     -0.25702858
       32.519937      -118.00397     -0.25702858
       32.519079      -118.00421     -0.24714375
       32.518222      -118.00445     -0.25555706
       32.517365      -118.00470     -0.24714375
       32.516508      -118.00494     -0.24714375
       32.515651      -118.00518     -0.24714375
       32.514793      -118.00542     -0.24714375
       32.513937      -118.00566     -0.23031664
       32.513079      -118.00590     -0.25555706
       32.512221      -118.00614     -0.24714375
       32.511363      -118.00638     -0.24714375
       32.510507      -118.00662     -0.27244568
       32.509650      -118.00687     -0.25561905
       32.508794      -118.00711     -0.26403236
       32.507936      -118.00735     -0.25561905
       32.507079      -118.00759     -0.25561905
       32.506222      -118.00783     -0.25561905
       32.505365      -118.00807     -0.25561905
       32.504508      -118.00831     -0.24720573
       32.503651      -118.00855     -0.24720573
       32.502794      -118.00879     -0.24720573
       32.501937      -118.00904     -0.25561905
       32.501080      -118.00928     -0.26738071
       32.500223      -118.00952     -0.25896740
       32.499365      -118.00976     -0.25055361
       32.498508      -118.01000     -0.25896740
       32.497651      -118.01024     -0.25896740
       32.496795      -118.01048     -0.25055361
       32.495937      -118.01072     -0.25896740
       32.495080      -118.01097     -0.25896740
       32.494223      -118.01121     -0.25055361
       32.493365      -118.01145     -0.25896740
       32.492509      -118.01169     -0.27071381
       32.491651      -118.01193     -0.26230001
       32.490794      -118.01217     -0.27071381
       32.489937      -118.01241     -0.27071381
       32.489080      -118.01265     -0.27071381
       32.488223      -118.01289     -0.27071381
       32.487366      -118.01313     -0.26230001
       32.486509      -118.01337     -0.27912712
       32.485652      -118.01361     -0.27071381
       32.484794      -118.01385     -0.27071381
       32.483937      -118.01409     -0.26230001
       32.483079      -118.01434     -0.27357054
       32.482222      -118.01458     -0.26515722
       32.481365      -118.01482     -0.27357054
       32.480508      -118.01506     -0.27357054
       32.479650      -118.01530     -0.27357054
       32.478793      -118.01554     -0.27357054
       32.477936      -118.01578     -0.26515722
       32.477079      -118.01602     -0.26515722
       32.476221      -118.01626     -0.26515722
       32.475364      -118.01650     -0.27357054
       32.474507      -118.01675     -0.26042318
       32.473650      -118.01699     -0.26042318
       32.472793      -118.01723     -0.25200987
       32.471936      -118.01747     -0.24171591
       32.471078      -118.01771     -0.25012922
       32.470221      -118.01795     -0.25854254
       32.469364      -118.01819     -0.26695633
       32.468507      -118.01843     -0.24171591
       32.467649      -118.01867     -0.25854254
       32.466791      -118.01891     -0.25012922
       32.465933      -118.01915     -0.24171591
       32.465076      -118.01940     -0.25243139
       32.464219      -118.01964     -0.22719145
       32.463362      -118.01988     -0.23560476
       32.462505      -118.02012     -0.24401808
       32.461648      -118.02036     -0.25243139
       32.460790      -118.02060     -0.23560476
       32.459934      -118.02084     -0.24401808
       32.459076      -118.02108     -0.24401808
       32.458219      -118.02132     -0.23560476
       32.457362      -118.02156     -0.25243139
       32.456505      -118.02180     -0.24876356
       32.455648      -118.02205     -0.26559019
       32.454790      -118.02229     -0.24876356
       32.453933      -118.02253     -0.24876356
       32.453076      -118.02277     -0.24876356
       32.452219      -118.02301     -0.24876356
       32.451363      -118.02325     -0.24876356
       32.450506      -118.02349     -0.24876356
       32.449649      -118.02373     -0.25717688
       32.448791      -118.02397     -0.24876356
       32.447935      -118.02421     -0.25717688
       32.447077      -118.02445     -0.26096773
       32.446220      -118.02470     -0.25255442
       32.445363      -118.02493     -0.26096773
       32.444506      -118.02518     -0.26938105
       32.443649      -118.02542     -0.25255442
       32.442793      -118.02566     -0.26096773
       32.441936      -118.02590     -0.26938105
       32.441079      -118.02614     -0.26096773
       32.440222      -118.02638     -0.26096773
       32.439364      -118.02662     -0.26096773
       32.438507      -118.02686     -0.24226379
       32.437650      -118.02710     -0.24226379
       32.436793      -118.02735     -0.25067759
       32.435936      -118.02759     -0.25909090
       32.435079      -118.02783     -0.25067759
       32.434223      -118.02807     -0.25067759
       32.433366      -118.02831     -0.26143408
       32.432508      -118.02855     -0.25302076
       32.431651      -118.02879     -0.26143408
       32.430794      -118.02903     -0.25302076
       32.429938      -118.02927     -0.24460697
       32.429081      -118.02951     -0.24316740
       32.428223      -118.02975     -0.23475361
       32.427366      -118.02999     -0.24316740
       32.426508      -118.03024     -0.24316740
       32.425651      -118.03048     -0.24316740
       32.424794      -118.03072     -0.24316740
       32.423937      -118.03096     -0.24316740
       32.423079      -118.03120     -0.22634029
       32.422222      -118.03144     -0.24316740
       32.421365      -118.03168     -0.23475361
       32.420508      -118.03192     -0.26099443
       32.419650      -118.03216     -0.25258064
       32.418792      -118.03240     -0.25258064
       32.417935      -118.03265     -0.25258064
       32.417078      -118.03289     -0.26099443
       32.416221      -118.03313     -0.26940775
       32.415363      -118.03337     -0.25258064
       32.414506      -118.03361     -0.26099443
       32.413649      -118.03385     -0.26099443
       32.412793      -118.03409     -0.26099443
       32.411935      -118.03434     -0.25258064
       32.411078      -118.03458     -0.24786043
       32.410221      -118.03482     -0.24786043
       32.409363      -118.03506     -0.25627375
       32.408506      -118.03530     -0.24786043
       32.407649      -118.03554     -0.24786043
       32.406792      -118.03578     -0.25627375
       32.405935      -118.03602     -0.26468706
       32.405077      -118.03626     -0.25627375
       32.404220      -118.03651     -0.25627375
       32.403362      -118.03675     -0.25627375
       32.402506      -118.03699     -0.24081945
       32.401649      -118.03723     -0.24923277
       32.400792      -118.03747     -0.24923277
       32.399934      -118.03771     -0.24923277
       32.399078      -118.03795     -0.25764608
       32.398221      -118.03819     -0.24923277
       32.397363      -118.03844     -0.25764608
       32.396507      -118.03868     -0.25764608
       32.395650      -118.03892     -0.26605940
       32.394793      -118.03916     -0.26187086
       32.393937      -118.03940     -0.26187086
       32.393080      -118.03964     -0.24265623
       32.392223      -118.03988     -0.26789665
       32.391365      -118.04012     -0.25106955
       32.390508      -118.04037     -0.25948286
       32.389652      -118.04061     -0.25948286
