       33.424778      -117.74699     -0.40389347       0
       33.405074      -117.75262     -0.45355606       1
       33.382798      -117.75900     -0.37246323       2
       33.360526      -117.76537     -0.40255356       3
       33.338250      -117.77174     -0.34450912       4
       33.316835      -117.77786     -0.30615377       5
       33.294565      -117.78423     -0.31231165       6
       33.272291      -117.79059     -0.31563807       7
       33.250018      -117.79696     -0.32032824       8
       33.228597      -117.80307     -0.30949354       9
       33.206320      -117.80942     -0.31560087      10
       33.184045      -117.81577     -0.30342722      11
       33.161766      -117.82212     -0.28326416      12
       33.140348      -117.82822     -0.32104397      13
       33.118072      -117.83456     -0.31909561      14
       33.095793      -117.84091     -0.33922052      15
       33.081226      -117.84506     -0.33922052      16
       33.070090      -117.84823     -0.33316088      17
       33.052100      -117.85335     -0.34346056      18
       33.029823      -117.85969     -0.31579494      19
       33.007545      -117.86602     -0.30589867      20
       32.985267      -117.87235     -0.31115150      21
       32.963844      -117.87843     -0.32762909      22
       32.941566      -117.88475     -0.30078125      23
       32.919293      -117.89107     -0.32239342      24
       32.897014      -117.89740     -0.31383753      25
       32.875595      -117.90348     -0.33645773      26
       32.853316      -117.90980     -0.31619501      27
       32.831038      -117.91612     -0.32932425      28
       32.808757      -117.92243     -0.30872631      29
       32.787333      -117.92849     -0.31478071      30
       32.765054      -117.93480     -0.32468081      31
       32.742770      -117.94110     -0.31268787      32
       32.720488      -117.94739     -0.31794882      33
       32.699061      -117.95345     -0.30850458      34
       32.676777      -117.95974     -0.30991793      35
       32.654493      -117.96603     -0.30944777      36
       32.632209      -117.97232     -0.30050898      37
       32.610784      -117.97836     -0.28638315      38
       32.588501      -117.98465     -0.28456640      39
       32.566219      -117.99093     -0.28697634      40
       32.543938      -117.99721     -0.27714825      41
       32.521651      -118.00349     -0.25702858      42
       32.500223      -118.00952     -0.25896740      43
       32.469364      -118.01819     -0.26695633      44
       32.480508      -118.01506     -0.27357054      45
       32.455648      -118.02205     -0.26559019      46
       32.433366      -118.02831     -0.26143408      47
       32.411935      -118.03434     -0.25258064      48
       32.394793      -118.03916     -0.26187086      49
